svm_type c_svc
kernel_type rbf
gamma 0.2
nr_class 2
total_sv 6
rho -0.130747
label 1 0
nr_sv 3 3
SV
0.8699731209782002 1:200 2:9 3:10 
0.8690307528905146 1:300 2:5 5:1 
0.8690307528905146 1:1200 2:10 
-1 1:1 3:2 
-0.8510413304606322 1:3 4:5 
-0.7569932962985971 1:2 4:3 
